0.120489 -0.0735998 0 0 0.135468 0.0701154 0 0.0791887 0 -0.140611 -0.0955314 0 0.0197127 0 0 0 0 -0.132327 0.0522738 0 0 0 0 -0.11972 0 0.00316016 0.00355759 -0.112352 0 0 0 0 0 -0.0159026 0.0804398 -0.124629 -0.113994 0.119759 0.0813885 0 0 0 -0.0308755 0.00619316 -0.123245 -0.083556 -0.0757614 0.0110949 -0.00213709 -0.0698342 
0 0 0.0339372 -0.133165 0 0.0269413 0 -0.0500606 0 0 0.0113788 0 -0.140818 0.0782142 0.151239 0 0 0.128012 0.111585 0 0 0 0 -0.0593711 0.133112 0.0200449 0.0396886 0 0 -0.108604 0 0 -0.0144014 -0.0684295 0 0 0.0223398 0 0 0 -0.00866462 -0.081906 0 -0.13241 -0.0738993 0 0 0.00236523 -0.157103 0.129755 
0 0 0 0 0 0.154591 0 -0.0793801 0.0920094 0.118601 -0.0499037 0 0 0 -0.00385459 0 0 0.0100812 0.157603 0 0 0.027655 0 0.0939431 -0.109835 -0.13135 -0.0426292 -0.0372876 0 0 0 0.0149078 0.0716157 -0.0229588 0 0.103133 0.0350629 0.0638218 -0.0678845 0.119009 0.0250707 0 0.0736255 0.114595 -0.0321213 -0.127589 0 -0.0462756 0 0.0475549 
-0.153385 0 -0.128403 0.00591478 0.14471 0.156404 0 0.117022 0 0 0 0 0 0 0 0.14997 -0.0324548 -0.10855 -0.0308418 0 0 -0.119961 0.10079 -0.0372402 0 -0.0509207 0.13148 0 0 0 0 0 0 0 0 0.0826685 0 0 0 0 0 0 0 0.0887063 0 0 0 0.0400757 0.152597 -0.146152 
0 0 0 0 0 0 0 0 0 0 0 -0.0417165 0 0 0 0 0 0 -0.143606 0.0566788 0 0 -0.0058535 -0.076057 0 0.0256198 -0.0472026 -0.058184 0.123447 -0.109799 0 0 0 0 0 0 -0.0414768 0 0.135566 0.0477941 0 0.124254 0.0263231 -0.112467 0.0469549 0 0 -0.0920363 0 -0.12698 
0 0.0304728 -0.0442465 0.109145 0 0 0.00580403 -0.113547 0 0 0.116086 0 0 -0.0578876 0 0 0 0 0 0 0.0887563 0.0991281 0 -0.0287894 0.0491439 0.0320977 -0.132081 -0.00256914 0 -0.0770497 0 0 0.10984 0.0230558 0 -0.142456 0 0.00664843 -0.0522866 0 -0.111549 0 0.0180522 -0.127598 0 0 0.00339021 0 0 0 
0 0.125881 0.140227 0 0.00489256 -0.148318 0 0 -0.130915 0 -0.0355104 0 0 0 0.0610659 0 0 0.0725238 0.0415373 0 0.0785961 -0.072484 0 0 0 0 0.0726356 0 0 0 0 -0.0374527 0.0569369 0 0.0999507 -0.0103675 0 0 0.0407734 0 0 0.12715 -0.155874 0.125959 0.00289136 -0.14476 0.107947 0.0174309 0.0557681 0 
0 0 0 0 0.0766929 0 0 0.0681968 0 0.14972 0 0 0 0 -0.0662038 0.0951331 0 0.108763 0 0 0.117634 0 -0.120951 -0.157354 -0.0843367 0.0908741 0 -0.146587 0 0.131896 0.0659467 0 -0.110408 0 -0.00241334 -0.13504 0 0 -0.083024 0 0 0.123555 0 0.124591 0 0.0905618 0 -0.147292 0 0.135062 
0 0.0426187 -0.00163649 -0.0246148 -0.0702026 0.108376 0 0 0 -0.0631849 -0.117865 0 0 -0.131819 0.0280261 0 0.112859 0 -0.0760311 0.13363 0 0 0 -0.0786575 -0.147144 0.154918 0 0 0 -0.0905032 0 -0.0499777 -0.00749315 0.106014 0.0544925 -0.0689593 0 -0.145929 0 0.146091 0 -0.125723 -0.108415 0.115032 0 0.0762644 0.131806 0 0 -0.0146383 
-0.0864582 -0.132679 0 0 0 0.154013 -0.0394796 -0.136295 0 0.0412721 -0.129938 0.120239 0 0 0 0 0 -0.0539555 0.0519134 -0.0424183 -0.147925 0.0768701 0 0 0.114335 0.0878492 0 0 -0.141904 -0.00717349 0 0.137885 0 -0.0771949 0 -0.0576202 0 0 0 0 0.0305717 0 0.124412 0.00714464 0.0928802 0 0.0223391 0.123842 0.0544299 0 
-0.0172101 0 -0.127001 0 -0.0570469 0 0 0 0.04278 -0.137513 0.157482 -0.119017 0 0 -0.130613 0.125529 -0.152212 -0.13438 0.0559577 -0.114993 0 -0.0836033 0 0.0177401 0 -0.125053 0.135315 -0.0642678 0.0141945 0 0 0 -0.0633115 -0.092888 0 -0.0867102 0 0.132288 0 -0.141095 -0.0213281 0 -0.056973 0 0.0355625 0.0264884 -0.000127177 0.0627643 0.0543437 0.12155 
-0.0692872 0 0 -0.0329844 -0.0122612 0.104302 0 0 -0.0202063 0 -0.085988 0 0 0 0 -0.106256 -0.00863625 -0.066138 0.0686984 0 0 0.0169895 0.120644 0 0 0 0.0520377 0.0361638 0.00177609 0 0.0570652 0.131626 0 0 0 0 0.0197242 0 0 0.0520721 -0.118527 0 0 0 0 0.0667727 0 -0.0939586 -0.0705771 0 
0 0.116553 -0.0117359 -0.0662349 0 -0.0759987 -0.148504 0.153969 0.0557021 0 0.0955651 0.117125 0 0 -0.0975904 -0.0354355 -0.0237519 -0.0909535 -0.0164234 0.0638999 -0.0862686 -0.134499 0 0.131219 -0.134608 0 0 0 -0.0778514 0 0 0 -0.0764256 0 -0.115523 0 0.0191155 0.105764 0 0 0 0 0 0 0 -0.0390358 0 0.04511 0 0 
0.0505933 0 0 0.150897 0 0 -0.0811273 0 0 -0.129028 0 0 0.10055 0 0 0 0 0 -0.040739 0 0 -0.157511 0 0 0 0 0 0.0320966 0 0.110035 0 0 0 -0.0332964 0 0.0930525 0 0.0161243 -0.0837645 -0.106706 0.142192 -0.144807 0.00833307 -0.0414695 0 0 0 0.0831653 -0.00778218 -0.140581 
0 0 0 -0.0504686 0.0222555 0 0 0.113578 0 0 -0.0196543 0 -0.00607123 -0.135732 0.0303777 -0.0271683 0 0 0 0.126144 0 0 0.068297 -0.140544 0 0.0401021 -0.115916 0 0 -0.0169884 0.0911154 -0.107477 0 0 0.00680704 0.108299 0 -0.0745557 0 0 0.126443 -0.0181584 0 -0.000311797 0 0 0 0 0 0 
0 -0.0571064 0 -0.0273735 0.0807339 -0.155675 0.0477743 -0.0912107 0 0 -0.0876703 -0.0875223 0 0 0 0 0 0.0178334 0 0 -0.0891418 0 0 0.0099742 0 0 0 0.0589753 0 -0.0516407 0 0 -0.0690861 0 0.0189603 0 0 0 -0.0905984 0 0 0.109401 0.0556537 -0.138842 0 0.0295225 0.0171695 -0.0900341 -0.0895274 0.024504 
0 0 0 -0.0539378 0 0 -0.0280148 0 0.0397771 0 0 0 0 0 0.131735 -0.0470776 0.146718 -0.135475 0.138608 0 0 0.123564 0 0.106609 -0.0709059 -0.0450346 0 0 0 0 0.117472 0 0 0 0.120356 0 -0.0851121 0 0.14353 0 0 0 0 -0.10589 0 0 -0.0733744 -0.0353738 -0.118698 0 
0 0 0 0 0 0.0480285 0 0.00999392 -0.148398 0 0 0 0.0340649 0 0 0 0 0.0257051 0.121803 0.132072 0 -0.145016 0 0 -0.0171503 0.124245 -0.0257099 -0.128012 0.0624375 0.0675561 -0.0370205 0 0 -0.147042 -0.0820464 0 -0.0347017 0 0 0.14746 -0.0476457 0.0571324 0 0 -0.071717 0.116074 0 0.100358 -0.123794 0 
-0.00242469 -0.0935327 0 -0.146621 0 0 0 0 0 0 -0.0122203 0.00250584 -0.110715 0 0.031069 -0.151273 0 -0.157047 -0.045 0.0986358 0 0.0857381 0.103044 0 0 0.021868 -0.115083 -0.0678004 0 0.0811325 0 0 0 0 0.00148609 0 0.148629 -0.0742006 -0.1188 0 0 0.153643 0 0.098296 0 0 0 0.0895031 0 0 
0.00880865 0 0 0 0.0732523 0 -0.0836519 0 0 0.0459882 -0.0140621 -0.156272 0.0870232 -0.0475218 0.0956668 0 0 0 0 -0.116942 0.134631 0 0.0790763 0.148133 0 -0.136914 0.12371 0.133654 0 0 0 -0.138225 -0.13287 0 0 0 0 -0.152656 -0.060563 0 0.0496279 0 0.0833655 0.0108671 0 0.0147897 0 0 -0.0861385 0 
-0.0680914 -0.0700852 0.139797 -0.0303898 0 -0.0755772 0 0 0.059664 0.127694 0.157046 0 0 0.152788 0 0 0.0435698 0 0 0 0 -0.11066 0 0 0.151526 0 -0.106243 0 0 -0.0943231 0 0 -0.131524 -0.0335266 0 0 0.00479467 0 -0.144408 0 -0.155111 0.10353 0 0.115259 0 0 0 0.0257522 0 0.0779797 
0.103737 0 -0.0868351 0 0 0.0144141 0.0187476 0 0 0 0.0739343 0 0 0 0 0 0.0317219 0.0372182 0.150953 -0.0161209 0 0 0 0.118102 0 0 0 -0.0712277 0 0.10591 0 0 0 0 0.100473 0 0 0 -0.0961618 0 0.0994468 0 0 0 0.0273647 -0.144111 0 0 0.0540777 0.149823 
-0.111831 0 0 0.135003 -0.0839369 0.00160377 0 -0.139851 0 -0.0911925 0 0 0 0.0638836 -0.0627674 0.126126 -0.00323176 0 -0.0932053 0.137494 0.115183 0.155655 -0.0310055 -0.0913704 0 0 0.147528 0.0840017 0 0 0.153918 -0.109038 0 0 0 0 -0.0617999 0 0 -0.10661 0.11513 0.0309744 0 0.158359 -0.149391 -0.0778726 0 0 0 -0.142349 
-0.114719 0 -0.0653676 0 -0.123936 0 0 -0.134193 0.13443 0 0 -0.0738389 0.0451739 0 0 -0.12286 0 -0.148659 -0.117888 0.153609 0 0 -0.151199 0.125731 -0.0776982 0.00273872 0.0272012 0 0 0 0 0 0.124489 0 -0.143386 0 0 0.0712609 0 0 -0.147713 0 0.122282 0.0886284 0.141393 -0.0675692 -0.13513 0 -0.0775393 0 
0.156404 0 0.122502 -0.115183 0 -0.0237815 -0.0242228 -0.131142 0 0 -0.147803 0 0.0992154 -0.123605 0.15287 -0.0153926 0.034 -0.00457858 0.0634716 0 0.0275836 0 0.00669995 0.157149 -0.00389465 0 0 0.00574788 0.0942325 0 0.0350576 0 0 0 0 -0.0189881 -0.0917569 0 0 0 0.0626263 0 0 0.0605026 0 0 0 0 -0.0230193 0 
0.141119 0 0 0 0 0 0 0 0.115919 -0.0899477 0.0671055 0 -0.032655 0.0460922 0 0 0 0.0314345 0.125071 -0.0153932 0 0.104733 0 0 0 -0.132218 0 0.152401 -0.0739629 0.0908212 0 0 0 0.028933 0.00757679 -0.157373 0 0 0 -0.0916589 0 0 0 -0.0472078 0 0 0 0 0 0 
0 0.0708207 0.0876961 0.0929145 0 0.054399 -0.152377 0 -0.15136 0.154118 0 -0.0959311 0 0.0728521 0 0 0 0 0 0.126198 0 0 0.0327526 0.148717 0 0.139611 0 0.00104734 0.109468 0 0 -0.107548 0 -0.0450886 0.0915085 -0.114194 0.0373987 0.121774 0 0.0837064 0.100019 0.111235 0 0.104329 -0.0777179 -0.0857767 0 -0.0306619 0.0312782 -0.0631162 
0.133482 -0.108079 0 -0.0581847 0 0 0.149248 0.147296 -0.0352583 -0.0036308 0.0994376 0.126654 0.094128 -0.121776 0.0102151 0.0699141 0 -0.129674 -0.0432368 -0.150047 0 0 0.0121906 0.0394548 0.0733389 4.49217e-05 0.079348 0 0 0 0.141471 0.0642729 0 0 -0.145933 0 -0.057896 0 0.0572574 -0.0396759 0 -0.149469 -0.0378163 0.132828 0.131355 0 0 0 -0.141194 0 
-0.158114 -0.0411069 0 0.0333811 -0.0650567 0 0 0 -0.1266 0.0505698 0 0 -0.102132 -0.0505227 0 0 0 0 0.133145 0 0 0 0 -0.0783059 0 0.107475 0.0460678 0 -0.137789 -0.00819259 -0.041468 0 0 0 0 -0.075591 0.09808 0 0 0 0 0 0 0.155656 0.124798 0.114161 0 0 0 0 
-0.0625902 -0.017516 0 0.0994063 0.110232 0.073463 0 0 0 0 -0.0597935 0.0458968 0.0418343 0.0444054 0 0 0 0 0 0.100917 0 0 0 0 0 0.137027 0.0975286 0 0 0 0 -0.0209801 0 0.0776167 0 -0.033634 0 0 0.121926 0 0 0 0.122327 0.0985554 0.00945773 0 0 0 -0.11251 -0.112799 
0.0871316 -0.123635 0 -0.0309564 0.0330983 -0.048256 -0.0519492 0 -0.0680815 -0.120525 -0.0994106 -0.0205669 0 0.115909 -0.00454441 -0.125603 -0.0401672 -0.00127279 0 0.0648788 0 0.0502568 -0.00556169 0 0.100879 0 -0.125592 0 0.072066 -0.00601065 -0.116672 -0.149372 -0.150491 -0.0969782 0.0414825 0 0 0 0 0 0.0658085 -0.0938143 0 0 -0.155654 -0.0504291 0 0 0 0 
0 -0.157682 -0.0590034 0 -0.0511045 0 0 0.132859 -0.054998 0 -0.0718975 0 0.11985 0 -0.00318219 0 0 -0.156677 -0.102265 0 0 -0.135169 -0.0213826 -0.0764421 0 0 0 0.0982842 0.157259 0.118873 0 0 -0.0193665 0.153696 0 0 0.151436 0.0491626 -0.0175159 0.0284719 0 0.100693 -0.0271204 0.105352 0 0 0.142668 0 0 0 
0 0 0 0 0.0901907 0.00946684 -0.0225676 0.104606 0.117862 0 -0.0120562 0 -0.0697532 0 0 0.129052 0 0.137503 0 0 0 -0.147047 -0.109638 -0.104602 0 0.0632553 -0.146563 -0.053375 0 0 -0.107933 0 0 0 0 0.0647304 -0.143423 0 0.15247 -0.0861152 0 -0.0747717 0 -0.128751 0 0.0640343 0 0.0758614 -0.00732265 0 
0 0 0 0 -0.0808859 0 0.142235 -0.0521192 -0.114683 0 -0.0424074 0.0694088 0.011972 0 0 -0.136639 0 -0.090587 0 0 0 0 0.0868727 0 0.13387 0.0710577 -0.0824416 0.0146647 0 0.115016 -0.0923273 0 0.107274 0.102682 0.0463298 0 0.0913534 -0.109804 0 -0.101555 0.0228088 0 -0.00171103 0 0 0.0810978 0 -0.0731994 -0.122028 0 
0 -0.0478517 0.12331 -0.147682 0 -0.151452 0 0 0.0361206 0 0.109355 0.0254044 -0.146638 0 0 0.111651 0 -0.119938 -0.123855 0 0 -0.0254345 0 0.0293956 0.0845536 0 -0.129624 0 0 0 0.0228397 -0.0492862 0 0 0 -0.0240028 0 0 0 -0.0878797 0 0 0 0 0.0674934 0.0952971 -0.0679193 0 0 0 
0.0937532 -0.0432776 0 0 0 0 0 -0.0558165 0.122294 0 0 0.0209377 0 0 -0.115495 -0.0434618 -0.134209 0 0 0.0732957 0.06008 0.131408 0 0 0 0 0 0.0385065 0.0883127 -0.153762 0.082143 0.092725 -0.0587134 0.0750067 0.142199 0 -0.122746 0.0202405 0.113548 0 0 0 0.154316 0.107823 0 0 0.0894679 0 0.0940958 0 
0 0.0123699 0.124912 0.0631048 -0.134941 -0.0880943 0 0.0905365 0 -0.145924 0 0.00877452 0 0 0.128383 0 0.0594603 -0.0216191 0 0 -0.137989 0.0808565 0 0 0 0.0592104 0 0.118303 0.154073 0.0460651 0 0 0 -0.0254818 0 0 0.134792 -0.154419 0 0 0 0.150807 0.0203796 0.00646024 0 -0.000299073 0.134526 0.0752646 0.0589206 -0.0528957 
0 0.0425055 0 0 0 0 0.0958409 0.0210892 0 -0.138164 -0.127521 0.0225966 -0.112167 0 0 0 0 -0.0492281 0 0 0 0.145656 0 0 0 -0.14869 0 0 0 0 0 -0.0937707 -0.0902566 -0.047173 0.0894332 0 0 0 0.041655 0 0.150817 0 -0.156271 0.0697259 -0.0674618 0 -0.0577616 0 0.127447 0 
0 0 0 0 0 0 0 -0.0773026 -0.128055 -0.138823 0.136348 0.0644176 0.144326 0.129846 0 -0.0960064 0 0 0 0 0 0.105675 -0.00935597 0.0270794 0 0 0.110348 0 0 0.0357131 0 0.0136704 -0.0396891 0 -0.131542 0 0 -0.134871 0 0.0281419 0 0 0.040283 -0.00753478 0 -0.0901826 -0.147932 -0.120622 -0.155932 0 
0.0567416 0.0865751 0 -0.118334 -0.120423 0 -0.0969034 0 0.0896288 -0.0420652 0.0300022 -0.0744751 -0.0628399 0 -0.0523817 0.0730792 0.0163556 0.121608 0 0.0497931 0 0 0 0 0 0 0 0 0 0 0 0.131305 0.055491 0 0.156269 0.0351634 -0.129104 0 0 0.0654166 0 0.138514 -0.113515 0 0 0.0459334 0.115383 0 0.151153 0 
-0.140139 0.112053 0.0533818 0.0716213 0 0 0.00594482 0 0 0 0 0.0328915 -0.15828 0 0.00524355 -0.0757159 0 -0.154735 0 0 -0.148445 0 0 0 -0.0981285 0 0.0369208 0 0 0 0 -0.0777155 0 0 -0.137303 0 0.0578284 0 0.140503 0 0.144158 -0.0563942 0 0.124105 -0.126644 0 0 -0.0877429 -0.0205946 0.072311 
0.0343437 -0.0560892 0 0 0 -0.0172855 0 0.0697591 0.0749982 0.149097 0 0 -0.115452 -0.151648 0.138783 -0.0932589 0 0.0445369 0 -0.0661722 0 0.0361289 -0.113 -0.145651 0 0.0433439 0 0 0.107372 -0.065248 -0.0643114 -0.0206869 0.0523742 0 0 0.0107467 0.00365222 0 0 0 0 0 -0.132888 -0.025264 0 0 0 0 0 -0.116853 
0.0471815 0 0.14126 0 -0.074699 0 0 -0.034531 -0.00420012 0.0688016 0 -0.0485068 -0.11979 0 0.0133365 0 0 -0.0615674 0.0396084 0 -0.0716004 0 -0.0887304 0 -0.00503905 0 -0.13804 -0.119939 0 0 -0.0750063 0 0.000889822 0.0357413 0 0 0.0261648 -0.0105887 0.0197458 -0.0109173 0 0.0661413 -0.00573004 0.0127663 -0.105583 -0.0486855 -0.109123 0 -0.0257395 0 
0.133541 0.134607 -0.0416613 0.132154 0.016607 0 0 0 0.0647577 -0.0278901 0.0642893 -0.063061 0 0 0.0848567 0 0.0457444 0 0.0811968 -0.0312666 0 0.0747225 0.0954057 0 0 0 0 0 0 -0.00878125 -0.156549 0 0.127562 -0.109319 -0.0192236 0 0 0.0212819 0 -0.0559116 -0.0375846 0 -0.121252 0 0 -0.144876 0.0509962 -0.0741065 0 0 
0 0.00497595 0 0 -0.0998763 0 -0.124339 0.154962 0 0.148644 0 0 0 -0.116504 0 0 -0.0829587 0.0608295 0.0136996 -0.109626 -0.0777535 -0.0501303 0.0246815 0 0.0657302 0.0242549 0.117002 0 0 -0.0793799 -0.0984645 -0.0439715 -0.00423554 0 0 -0.0669855 0.0831884 0.141967 0 0 0 0.0904539 0 0 0 0 0.104912 0 0 -0.0944644 
0 -0.0219319 0 0 0.0810853 -0.0353281 0.105928 -0.0173279 0.134205 0 0 0.0811583 0 0 0 0 0 0 0 -0.111466 -0.0384585 0 0 0 0 0 0 0 -0.014613 0 -0.0670748 0.0227924 0.0195783 -0.13593 0.0701996 -0.0959809 0 0 0.0834579 0 0 0.150514 -0.0755475 -0.143436 0 0 0.0363865 0 0.0240737 0 
0 0 0 0.0874161 0.0267155 -0.102464 0 0.0300948 0.0385209 0 0.0252709 0.0428968 0 0 0 0.0233686 0.110808 -0.0514798 0 0 0.100699 0 0 0 0 0 0.0054849 0 0 0.149238 -0.127182 0.0770346 0 -0.0384589 0 0 0 0 -0.108868 0.124676 0.0310711 0 0 0 0 0 -0.0343072 0.0516145 0 0 
0 0 0 0 0 0 -0.106839 0.0172779 0 0 -0.0582399 0 0 0 0 -0.0561936 0.0200745 0.156595 0 -0.0361026 -0.111255 0.101099 0.05733 0 -0.105988 -0.124375 0 0 0 -0.063542 -0.0310838 0 0 0.0963507 -0.0161518 0.00783413 -0.109021 0 0.0132664 0 0 -0.110644 0 -0.155172 0 0 0 0 0 0 
0 0.0752795 -0.00029034 0.156731 0.0465013 0 0.0976658 -0.0753655 0 0 0.00191099 0.0816627 0 0 0.114314 0 0 0.0932565 0.0176351 0 0.0484285 0.0190902 0 0 0.0878897 0 0.111489 0.155856 0 0 0 0 -0.0163083 -0.132688 0 0.140017 0 0 -0.0498583 -0.145131 0.0380917 0.0144061 0 -0.0448666 0.0393251 0 0 -0.131134 0 0 
-0.0655246 -0.140535 -0.0167702 0.0744318 -0.133207 0 0 0.039849 0 -0.094712 -0.0626359 0 0 -0.125172 0 0 -0.0820274 -0.155554 0.107487 0.0864488 0 0.00461595 0 -0.0793426 0 0.0103648 0 -0.108176 0 -0.0444982 0 0 0 -0.0871239 0.0313786 0 0.107741 -0.11317 0 0 0 0.0207769 0 0 -0.0397875 0 0 0 0.0190918 0.015235 
