0.00965464 -0.0229424 -0.0155771 0.0280025 0.0489279 -0.010082 0.0658836 -0.0311581 -0.0746612 -0.0527682 -0.00992618 -0.0250892 -0.0402217 0.0776779 -0.0551385 0.0568752 0.00618035 -0.0204209 0.018454 -0.0186039 0.021634 -0.0527932 -0.0393896 0.0194941 -0.0866285 0.00371353 -0.00794641 -0.00400541 -0.0286012 0.0780445 0.0886456 -0.0725511 -0.114708 0.103725 -0.0196167 0.0018077 0.0184308 -0.0292013 -0.0356966 -0.0482641 0.0443997 0.06425 0.0344809 0.0776906 -0.0150024 0.0231343 0.042802 0.0302778 -0.0445492 0.075362 
0.288324 -0.100539 -0.267798 0.0373423 0.287381 -0.20192 0.355444 0.0294457 -0.354621 -0.115512 0.0272019 -0.0297229 0.348734 -0.32489 0.161313 0.0885668 -0.0958419 -0.276261 0.205215 -0.0799606 0.360197 0.104203 -0.213368 0.143373 -0.433318 -0.0883807 0.10245 -0.489268 -0.100306 -0.18958 -0.212095 -0.0301191 -0.204928 0.25701 -0.184344 -0.0257386 0.133264 0.17452 -0.465641 -0.551094 0.13695 -0.112938 0.00667512 -0.23758 -0.213045 -0.202055 -0.0141572 0.286252 -0.443461 -0.12793 
-0.101145 -0.0856755 -0.072975 -0.253959 -0.10749 -0.0783913 0.0538067 -0.0524596 0.549028 -0.13107 -0.17361 -0.191392 -0.282162 0.352 -0.185062 -0.082887 0.0885579 -0.0216563 -0.292382 0.358396 -0.300095 -0.0121618 -0.0569521 -0.125374 0.319597 0.220232 -0.147037 0.152686 0.0872204 -0.322649 -0.025141 -0.0294041 0.351402 0.134113 0.279884 -0.0192308 0.0172111 0.0112532 0.126435 0.358257 0.0306011 0.102401 0.125671 0.182906 0.00532728 0.162861 0.0866817 0.124267 0.44099 -0.030633 
-0.0240269 -0.0306727 0.0140326 -0.0388738 0.0396026 -0.197726 0.0747146 -0.132832 0.0264501 0.255238 0.0943625 0.054061 -0.542423 -0.130469 0.0752632 -0.106352 -0.360541 0.228849 0.211622 -0.0634394 -0.344456 -0.270131 0.0355709 0.100866 0.0759171 -0.0971421 -0.0806383 0.0709384 -0.0502171 0.0188588 0.0388686 0.0480669 -0.109989 -0.171619 0.106513 0.0670271 -0.104019 -0.112684 0.0589737 -0.149646 0.137014 0.0171252 -0.160318 -0.140013 0.268885 0.0782208 0.110539 -0.058643 -0.121493 0.0596556 
0.0640212 -0.0403979 0.192938 -0.133887 -0.0340961 -0.0854503 -0.503175 0.040625 -0.198801 0.238078 0.495463 0.00263345 0.0229861 -0.0410324 0.0860703 -0.154749 -0.187979 -0.0866748 0.234634 0.230802 0.276572 0.0470246 -0.0342587 0.0286793 0.284013 0.04043 0.0980066 -0.260791 -0.0558531 0.088904 -0.220652 0.033579 0.112137 -0.161255 -0.0121889 0.0146913 0.253711 -0.149118 0.190176 0.332867 0.181052 0.299276 0.335677 0.0259396 -0.0558451 -0.11049 0.0281133 -0.0284724 0.106105 0.0536077 
0.183761 0.185342 0.021904 0.0231111 -0.197208 0.573506 0.0972686 0.119127 -0.404675 -0.143064 -0.315087 0.277545 0.23791 -0.190407 0.220544 -0.0630463 0.0646085 0.128983 -0.300398 0.257675 0.206512 0.125544 0.0561504 -0.0196401 -0.114398 -0.0896187 0.160304 -0.0203221 0.206722 0.170369 -0.163696 0.0262467 -0.215138 -0.185228 -0.0870096 -0.0474336 0.254125 -0.173156 0.0779546 -0.172942 -0.0122191 -0.0625516 0.0250094 0.112185 0.0123588 -0.0840538 0.0131317 0.0646705 -0.205184 -0.114449 
-0.297672 -0.0574252 0.0937023 0.312647 0.00113187 -0.085047 -0.247673 -0.0622969 0.317028 0.0689249 -0.0491515 0.00977867 -0.0182858 0.147899 -0.225786 0.00801427 0.255744 0.0706854 -0.084505 -0.503666 -0.218737 0.0390121 0.17755 0.0391934 0.148741 0.0104296 -0.145052 0.0922292 -0.102368 0.20255 0.257692 0.0276742 0.310994 0.187724 -0.0613429 -0.130402 -0.445051 0.149697 0.164837 0.123981 -0.154567 -0.143872 -0.0705698 -0.046097 0.0772046 0.0788832 -0.169629 -0.27857 0.0146693 -0.0376958 
